svm_type c_svc
kernel_type rbf
gamma 0.0769231
nr_class 2
total_sv 492
rho 0.6698
label 1 -1
nr_sv 241 251
SV
1 1:0.166667 2:1 3:-0.333333 4:-0.433962 5:-0.383562 6:-1 7:-1 8:0.0687023 9:-1 10:-0.903226 11:-1 12:-1 13:1 
1 1:0.333333 2:1 3:-1 4:-0.245283 5:-0.506849 6:-1 7:-1 8:0.129771 9:-1 10:-0.16129 12:0.333333 13:-1 
1 1:0.25 2:1 3:-1 4:0.245283 5:-0.328767 6:-1 7:1 8:-0.175573 9:-1 10:-1 11:-1 12:-1 13:-1 
1 1:-0.541667 2:1 3:1 4:0.0943396 5:-0.557078 6:-1 7:-1 8:0.679389 9:-1 10:-1 11:-1 12:-1 13:1 
1 1:0.25 2:1 3:0.333333 4:-0.396226 5:-0.579909 6:1 7:-1 8:-0.0381679 9:-1 10:-0.290323 12:-0.333333 13:0.5 
1 1:-0.375 2:1 3:1 4:-0.698113 5:-0.675799 6:-1 7:1 8:0.618321 9:-1 10:-1 11:-1 12:-0.333333 13:-1 
1 1:0.25 2:-1 3:1 4:0.509434 5:-0.438356 6:-1 7:-1 8:0.0992366 9:1 10:-1 12:-1 13:-1 
1 1:0.375 2:1 3:-0.333333 4:-0.509434 5:-0.292237 6:-1 7:1 8:-0.51145 9:-1 10:-0.548387 12:-0.333333 13:1 
1 1:0.208333 2:-1 3:-0.333333 4:-0.207547 5:-0.118721 6:1 7:1 8:0.236641 9:-1 10:-1 11:-1 12:0.333333 13:-1 
1 1:-0.25 2:1 3:0.333333 4:-0.735849 5:-0.465753 6:-1 7:-1 8:0.236641 9:-1 10:-1 11:-1 12:-1 13:-1 
1 1:0.208333 2:1 3:1 4:0.0566038 5:-0.342466 6:-1 7:1 8:-0.389313 9:1 10:-0.741935 11:-1 12:-1 13:1 
1 1:0.333333 2:-1 3:1 4:-0.320755 5:-0.0684932 6:-1 7:1 8:0.496183 9:-1 10:-1 11:-1 12:-1 13:-1 
0.583124876008379 1:0.0416667 2:1 3:1 4:-0.698113 5:-0.634703 6:-1 7:1 8:-0.435115 9:1 10:-1 12:-0.333333 13:-1 
1 1:0.208333 2:1 3:1 4:-0.886792 5:-0.506849 6:-1 7:-1 8:0.29771 9:-1 10:-0.967742 11:-1 12:-0.333333 13:1 
1 1:0.583333 2:1 3:1 4:-0.509434 5:-0.493151 6:-1 7:-1 8:-1 9:-1 10:-0.677419 12:-1 13:-1 
1 1:-0.208333 2:1 3:1 4:-0.433962 5:-0.324201 6:-1 7:1 8:0.450382 9:-1 10:-0.83871 12:-1 13:1 
1 1:0.25 2:1 3:1 4:-0.132075 5:-0.767123 6:-1 7:-1 8:0.389313 9:1 10:-1 11:-1 12:-0.333333 13:1 
1 1:0.291667 2:-1 3:1 4:0.207547 5:-0.182648 6:-1 7:1 8:0.374046 9:-1 10:-1 11:-1 12:-1 13:-1 
1 1:0.541667 2:1 3:1 4:-0.660377 5:-0.607306 6:-1 7:1 8:-0.0687023 9:1 10:-0.967742 11:-1 12:-0.333333 13:-1 
1 1:0.125 2:1 3:1 4:-0.415094 5:-0.438356 6:1 7:1 8:0.114504 9:1 10:-0.612903 12:-0.333333 13:-1 
1 1:-0.125 2:1 3:0.333333 4:-0.132075 5:-0.511416 6:-1 7:-1 8:0.40458 9:-1 10:-0.806452 12:-0.333333 13:1 
1 1:0.0416667 2:1 3:-0.333333 4:0.849057 5:-0.283105 6:-1 7:1 8:0.89313 9:-1 10:-1 11:-1 12:-0.333333 13:1 
1 1:-0.0416667 2:1 3:1 4:-0.660377 5:-0.525114 6:-1 7:-1 8:0.358779 9:-1 10:-1 11:-1 12:-0.333333 13:-1 
1 1:-0.625 2:1 3:-1 4:-0.509434 5:-0.520548 6:-1 7:-1 8:0.694656 9:1 10:0.225806 12:-1 13:1 
1 1:0.375 2:-1 3:1 4:0.0566038 5:-0.461187 6:-1 7:-1 8:0.267176 9:1 10:-0.548387 12:-1 13:-1 
1 1:0.5 2:1 3:-1 4:-0.169811 5:-0.287671 6:1 7:1 8:0.572519 9:-1 10:-0.548387 12:-0.333333 13:-1 
1 1:-0.291667 2:1 3:0.333333 4:0.0566038 5:-0.520548 6:-1 7:-1 8:0.160305 9:-1 10:0.16129 12:-1 13:-1 
1 1:0.583333 2:1 3:1 4:-0.415094 5:-0.415525 6:1 7:-1 8:0.40458 9:-1 10:-0.935484 12:0.333333 13:1 
1 1:-0.5 2:1 3:1 4:-0.698113 5:-0.789954 6:-1 7:1 8:0.328244 9:-1 10:-1 11:-1 12:-1 13:1 
1 1:-0.0833333 2:1 3:1 4:-0.132075 5:-0.210046 6:-1 7:-1 8:0.557252 9:1 10:-0.483871 11:-1 12:-1 13:1 
1 1:0.458333 2:1 3:0.333333 4:-0.415094 5:-0.164384 6:-1 7:-1 8:-0.0839695 9:1 10:-0.419355 12:-1 13:1 
1 1:0.25 2:1 3:-1 4:0.433962 5:-0.260274 6:-1 7:1 8:0.343511 9:-1 10:-0.935484 12:-1 13:1 
1 1:0.375 2:-1 3:0.333333 4:-0.320755 5:-0.374429 6:-1 7:-1 8:-0.603053 9:-1 10:-0.612903 12:-0.333333 13:1 
1 1:-0.583333 2:1 3:1 4:-0.54717 5:-0.575342 6:-1 7:-1 8:0.0534351 9:-1 10:-0.612903 12:-1 13:1 
0.4781161348163144 1:-0.0416667 2:1 3:1 4:-0.358491 5:-0.410959 6:-1 7:-1 8:0.374046 9:1 10:-1 11:-1 12:-0.333333 13:1 
0.687398474503935 1:0.375 2:-1 3:1 4:-0.132075 5:-0.351598 6:-1 7:1 8:0.358779 9:-1 10:0.16129 11:1 12:0.333333 13:-1 
1 1:0.291667 2:1 3:0.333333 4:-0.132075 5:-0.730594 6:-1 7:1 8:0.282443 9:-1 10:-0.0322581 12:-1 13:-1 
1 1:-0.375 2:1 3:1 4:-0.660377 5:-0.251142 6:-1 7:1 8:0.251908 9:-1 10:-1 11:-1 12:-0.333333 13:-1 
1 1:0.458333 2:1 3:0.333333 4:-0.132075 5:-0.0456621 6:-1 7:-1 8:0.328244 9:-1 10:-1 11:-1 12:-1 13:-1 
1 1:0.208333 2:1 3:-0.333333 4:-0.509434 5:-0.278539 6:-1 7:1 8:0.358779 9:-1 10:-0.419355 12:-1 13:-1 
1 1:-0.208333 2:1 3:-0.333333 4:-0.698113 5:-0.52968 6:-1 7:-1 8:0.480916 9:-1 10:-0.677419 11:1 12:-1 13:1 
1 1:0.166667 2:1 3:-0.333333 4:-0.433962 5:-0.383562 6:-1 7:-1 8:0.0687023 9:-1 10:-0.903226 11:-1 12:-1 13:1 
1 1:0.333333 2:1 3:-1 4:-0.245283 5:-0.506849 6:-1 7:-1 8:0.129771 9:-1 10:-0.16129 12:0.333333 13:-1 
1 1:0.25 2:1 3:-1 4:0.245283 5:-0.328767 6:-1 7:1 8:-0.175573 9:-1 10:-1 11:-1 12:-1 13:-1 
1 1:-0.541667 2:1 3:1 4:0.0943396 5:-0.557078 6:-1 7:-1 8:0.679389 9:-1 10:-1 11:-1 12:-1 13:1 
1 1:0.25 2:1 3:0.333333 4:-0.396226 5:-0.579909 6:1 7:-1 8:-0.0381679 9:-1 10:-0.290323 12:-0.333333 13:0.5 
1 1:-0.375 2:1 3:1 4:-0.698113 5:-0.675799 6:-1 7:1 8:0.618321 9:-1 10:-1 11:-1 12:-0.333333 13:-1 
1 1:0.25 2:-1 3:1 4:0.509434 5:-0.438356 6:-1 7:-1 8:0.0992366 9:1 10:-1 12:-1 13:-1 
1 1:0.375 2:1 3:-0.333333 4:-0.509434 5:-0.292237 6:-1 7:1 8:-0.51145 9:-1 10:-0.548387 12:-0.333333 13:1 
1 1:0.208333 2:-1 3:-0.333333 4:-0.207547 5:-0.118721 6:1 7:1 8:0.236641 9:-1 10:-1 11:-1 12:0.333333 13:-1 
1 1:-0.25 2:1 3:0.333333 4:-0.735849 5:-0.465753 6:-1 7:-1 8:0.236641 9:-1 10:-1 11:-1 12:-1 13:-1 
0.8082924895350883 1:0.208333 2:1 3:1 4:0.0566038 5:-0.342466 6:-1 7:1 8:-0.389313 9:1 10:-0.741935 11:-1 12:-1 13:1 
1 1:0.333333 2:-1 3:1 4:-0.320755 5:-0.0684932 6:-1 7:1 8:0.496183 9:-1 10:-1 11:-1 12:-1 13:-1 
1 1:0.0416667 2:1 3:1 4:-0.698113 5:-0.634703 6:-1 7:1 8:-0.435115 9:1 10:-1 12:-0.333333 13:-1 
0.1389426861873757 1:-0.0416667 2:1 3:1 4:-0.415094 5:-0.607306 6:-1 7:-1 8:0.480916 9:-1 10:-0.677419 11:-1 12:0.333333 13:1 
1 1:0.208333 2:1 3:1 4:-0.886792 5:-0.506849 6:-1 7:-1 8:0.29771 9:-1 10:-0.967742 11:-1 12:-0.333333 13:1 
1 1:0.583333 2:1 3:1 4:-0.509434 5:-0.493151 6:-1 7:-1 8:-1 9:-1 10:-0.677419 12:-1 13:-1 
1 1:-0.208333 2:1 3:1 4:-0.433962 5:-0.324201 6:-1 7:1 8:0.450382 9:-1 10:-0.83871 12:-1 13:1 
1 1:0.25 2:1 3:1 4:-0.132075 5:-0.767123 6:-1 7:-1 8:0.389313 9:1 10:-1 11:-1 12:-0.333333 13:1 
1 1:0.291667 2:-1 3:1 4:0.207547 5:-0.182648 6:-1 7:1 8:0.374046 9:-1 10:-1 11:-1 12:-1 13:-1 
0.04582478606524729 1:-0.291667 2:1 3:1 4:-0.509434 5:-0.438356 6:-1 7:1 8:0.114504 9:-1 10:-0.741935 11:-1 12:-1 13:1 
1 1:0.541667 2:1 3:1 4:-0.660377 5:-0.607306 6:-1 7:1 8:-0.0687023 9:1 10:-0.967742 11:-1 12:-0.333333 13:-1 
1 1:0.125 2:1 3:1 4:-0.415094 5:-0.438356 6:1 7:1 8:0.114504 9:1 10:-0.612903 12:-0.333333 13:-1 
1 1:-0.125 2:1 3:0.333333 4:-0.132075 5:-0.511416 6:-1 7:-1 8:0.40458 9:-1 10:-0.806452 12:-0.333333 13:1 
1 1:0.0416667 2:1 3:-0.333333 4:0.849057 5:-0.283105 6:-1 7:1 8:0.89313 9:-1 10:-1 11:-1 12:-0.333333 13:1 
1 1:-0.0416667 2:1 3:1 4:-0.660377 5:-0.525114 6:-1 7:-1 8:0.358779 9:-1 10:-1 11:-1 12:-0.333333 13:-1 
1 1:-0.625 2:1 3:-1 4:-0.509434 5:-0.520548 6:-1 7:-1 8:0.694656 9:1 10:0.225806 12:-1 13:1 
1 1:0.375 2:-1 3:1 4:0.0566038 5:-0.461187 6:-1 7:-1 8:0.267176 9:1 10:-0.548387 12:-1 13:-1 
1 1:0.5 2:1 3:-1 4:-0.169811 5:-0.287671 6:1 7:1 8:0.572519 9:-1 10:-0.548387 12:-0.333333 13:-1 
1 1:-0.291667 2:1 3:0.333333 4:0.0566038 5:-0.520548 6:-1 7:-1 8:0.160305 9:-1 10:0.16129 12:-1 13:-1 
1 1:0.583333 2:1 3:1 4:-0.415094 5:-0.415525 6:1 7:-1 8:0.40458 9:-1 10:-0.935484 12:0.333333 13:1 
1 1:-0.5 2:1 3:1 4:-0.698113 5:-0.789954 6:-1 7:1 8:0.328244 9:-1 10:-1 11:-1 12:-1 13:1 
1 1:-0.0833333 2:1 3:1 4:-0.132075 5:-0.210046 6:-1 7:-1 8:0.557252 9:1 10:-0.483871 11:-1 12:-1 13:1 
1 1:0.458333 2:1 3:0.333333 4:-0.415094 5:-0.164384 6:-1 7:-1 8:-0.0839695 9:1 10:-0.419355 12:-1 13:1 
1 1:0.25 2:1 3:-1 4:0.433962 5:-0.260274 6:-1 7:1 8:0.343511 9:-1 10:-0.935484 12:-1 13:1 
1 1:0.375 2:-1 3:0.333333 4:-0.320755 5:-0.374429 6:-1 7:-1 8:-0.603053 9:-1 10:-0.612903 12:-0.333333 13:1 
0.6887498501995015 1:0.333333 2:-1 3:1 4:-0.0377358 5:-0.173516 6:-1 7:1 8:0.145038 9:1 10:-0.677419 12:-1 13:1 
1 1:-0.583333 2:1 3:1 4:-0.54717 5:-0.575342 6:-1 7:-1 8:0.0534351 9:-1 10:-0.612903 12:-1 13:1 
1 1:-0.0416667 2:1 3:1 4:-0.358491 5:-0.410959 6:-1 7:-1 8:0.374046 9:1 10:-1 11:-1 12:-0.333333 13:1 
1 1:0.375 2:-1 3:1 4:-0.132075 5:-0.351598 6:-1 7:1 8:0.358779 9:-1 10:0.16129 11:1 12:0.333333 13:-1 
1 1:0.291667 2:1 3:0.333333 4:-0.132075 5:-0.730594 6:-1 7:1 8:0.282443 9:-1 10:-0.0322581 12:-1 13:-1 
1 1:-0.375 2:1 3:1 4:-0.660377 5:-0.251142 6:-1 7:1 8:0.251908 9:-1 10:-1 11:-1 12:-0.333333 13:-1 
1 1:0.458333 2:1 3:0.333333 4:-0.132075 5:-0.0456621 6:-1 7:-1 8:0.328244 9:-1 10:-1 11:-1 12:-1 13:-1 
1 1:0.208333 2:1 3:-0.333333 4:-0.509434 5:-0.278539 6:-1 7:1 8:0.358779 9:-1 10:-0.419355 12:-1 13:-1 
1 1:-0.208333 2:1 3:-0.333333 4:-0.698113 5:-0.52968 6:-1 7:-1 8:0.480916 9:-1 10:-0.677419 11:1 12:-1 13:1 
1 1:0.166667 2:1 3:-0.333333 4:-0.433962 5:-0.383562 6:-1 7:-1 8:0.0687023 9:-1 10:-0.903226 11:-1 12:-1 13:1 
1 1:0.333333 2:1 3:-1 4:-0.245283 5:-0.506849 6:-1 7:-1 8:0.129771 9:-1 10:-0.16129 12:0.333333 13:-1 
1 1:0.208333 2:1 3:0.333333 4:-0.660377 5:-0.525114 6:-1 7:1 8:0.435115 9:-1 10:-0.193548 12:-0.333333 13:1 
1 1:0.25 2:1 3:-1 4:0.245283 5:-0.328767 6:-1 7:1 8:-0.175573 9:-1 10:-1 11:-1 12:-1 13:-1 
1 1:-0.541667 2:1 3:1 4:0.0943396 5:-0.557078 6:-1 7:-1 8:0.679389 9:-1 10:-1 11:-1 12:-1 13:1 
1 1:0.25 2:1 3:0.333333 4:-0.396226 5:-0.579909 6:1 7:-1 8:-0.0381679 9:-1 10:-0.290323 12:-0.333333 13:0.5 
1 1:-0.375 2:1 3:1 4:-0.698113 5:-0.675799 6:-1 7:1 8:0.618321 9:-1 10:-1 11:-1 12:-0.333333 13:-1 
1 1:0.25 2:-1 3:1 4:0.509434 5:-0.438356 6:-1 7:-1 8:0.0992366 9:1 10:-1 12:-1 13:-1 
1 1:0.375 2:1 3:-0.333333 4:-0.509434 5:-0.292237 6:-1 7:1 8:-0.51145 9:-1 10:-0.548387 12:-0.333333 13:1 
1 1:0.208333 2:-1 3:-0.333333 4:-0.207547 5:-0.118721 6:1 7:1 8:0.236641 9:-1 10:-1 11:-1 12:0.333333 13:-1 
1 1:-0.25 2:1 3:0.333333 4:-0.735849 5:-0.465753 6:-1 7:-1 8:0.236641 9:-1 10:-1 11:-1 12:-1 13:-1 
1 1:-0.75 2:1 3:1 4:-0.509434 5:-0.671233 6:-1 7:-1 8:-0.0992366 9:1 10:-0.483871 12:-1 13:1 
1 1:0.333333 2:-1 3:1 4:-0.320755 5:-0.0684932 6:-1 7:1 8:0.496183 9:-1 10:-1 11:-1 12:-1 13:-1 
1 1:0.0416667 2:1 3:1 4:-0.698113 5:-0.634703 6:-1 7:1 8:-0.435115 9:1 10:-1 12:-0.333333 13:-1 
1 1:-0.0416667 2:1 3:1 4:-0.415094 5:-0.607306 6:-1 7:-1 8:0.480916 9:-1 10:-0.677419 11:-1 12:0.333333 13:1 
1 1:0.208333 2:1 3:1 4:-0.886792 5:-0.506849 6:-1 7:-1 8:0.29771 9:-1 10:-0.967742 11:-1 12:-0.333333 13:1 
1 1:0.583333 2:1 3:1 4:-0.509434 5:-0.493151 6:-1 7:-1 8:-1 9:-1 10:-0.677419 12:-1 13:-1 
1 1:-0.208333 2:1 3:1 4:-0.433962 5:-0.324201 6:-1 7:1 8:0.450382 9:-1 10:-0.83871 12:-1 13:1 
1 1:0.25 2:1 3:1 4:-0.132075 5:-0.767123 6:-1 7:-1 8:0.389313 9:1 10:-1 11:-1 12:-0.333333 13:1 
0.1692227811450372 1:0.0833333 2:-1 3:1 4:0.622642 5:-0.0821918 6:-1 8:-0.29771 9:1 10:0.0967742 12:-1 13:-1 
1 1:0.291667 2:-1 3:1 4:0.207547 5:-0.182648 6:-1 7:1 8:0.374046 9:-1 10:-1 11:-1 12:-1 13:-1 
1 1:-0.291667 2:1 3:1 4:-0.509434 5:-0.438356 6:-1 7:1 8:0.114504 9:-1 10:-0.741935 11:-1 12:-1 13:1 
1 1:0.541667 2:1 3:1 4:-0.660377 5:-0.607306 6:-1 7:1 8:-0.0687023 9:1 10:-0.967742 11:-1 12:-0.333333 13:-1 
1 1:0.125 2:1 3:1 4:-0.415094 5:-0.438356 6:1 7:1 8:0.114504 9:1 10:-0.612903 12:-0.333333 13:-1 
1 1:-0.125 2:1 3:0.333333 4:-0.132075 5:-0.511416 6:-1 7:-1 8:0.40458 9:-1 10:-0.806452 12:-0.333333 13:1 
1 1:0.0416667 2:1 3:-0.333333 4:0.849057 5:-0.283105 6:-1 7:1 8:0.89313 9:-1 10:-1 11:-1 12:-0.333333 13:1 
1 1:-0.0416667 2:1 3:1 4:-0.660377 5:-0.525114 6:-1 7:-1 8:0.358779 9:-1 10:-1 11:-1 12:-0.333333 13:-1 
1 1:-0.625 2:1 3:-1 4:-0.509434 5:-0.520548 6:-1 7:-1 8:0.694656 9:1 10:0.225806 12:-1 13:1 
1 1:0.375 2:-1 3:1 4:0.0566038 5:-0.461187 6:-1 7:-1 8:0.267176 9:1 10:-0.548387 12:-1 13:-1 
1 1:0.5 2:1 3:-1 4:-0.169811 5:-0.287671 6:1 7:1 8:0.572519 9:-1 10:-0.548387 12:-0.333333 13:-1 
0.4281362765643101 1:0.375 2:-1 3:1 4:-0.169811 5:-0.232877 6:1 7:-1 8:-0.465649 9:-1 10:-0.387097 12:1 13:-1 
1 1:-0.291667 2:1 3:0.333333 4:0.0566038 5:-0.520548 6:-1 7:-1 8:0.160305 9:-1 10:0.16129 12:-1 13:-1 
1 1:0.583333 2:1 3:1 4:-0.415094 5:-0.415525 6:1 7:-1 8:0.40458 9:-1 10:-0.935484 12:0.333333 13:1 
1 1:-0.5 2:1 3:1 4:-0.698113 5:-0.789954 6:-1 7:1 8:0.328244 9:-1 10:-1 11:-1 12:-1 13:1 
1 1:-0.75 2:1 3:1 4:-0.396226 5:-0.287671 6:-1 7:1 8:0.29771 9:1 10:-1 11:-1 12:-1 13:1 
1 1:-0.0833333 2:1 3:1 4:-0.132075 5:-0.210046 6:-1 7:-1 8:0.557252 9:1 10:-0.483871 11:-1 12:-1 13:1 
1 1:0.458333 2:1 3:0.333333 4:-0.415094 5:-0.164384 6:-1 7:-1 8:-0.0839695 9:1 10:-0.419355 12:-1 13:1 
1 1:0.25 2:1 3:-1 4:0.433962 5:-0.260274 6:-1 7:1 8:0.343511 9:-1 10:-0.935484 12:-1 13:1 
1 1:0.375 2:-1 3:0.333333 4:-0.320755 5:-0.374429 6:-1 7:-1 8:-0.603053 9:-1 10:-0.612903 12:-0.333333 13:1 
1 1:0.333333 2:-1 3:1 4:-0.0377358 5:-0.173516 6:-1 7:1 8:0.145038 9:1 10:-0.677419 12:-1 13:1 
1 1:-0.583333 2:1 3:1 4:-0.54717 5:-0.575342 6:-1 7:-1 8:0.0534351 9:-1 10:-0.612903 12:-1 13:1 
1 1:-0.0416667 2:1 3:1 4:-0.358491 5:-0.410959 6:-1 7:-1 8:0.374046 9:1 10:-1 11:-1 12:-0.333333 13:1 
0.01383800598951297 1:0.625 2:1 3:0.333333 4:0.622642 5:-0.324201 6:1 7:1 8:0.206107 9:1 10:-0.483871 12:-1 13:1 
1 1:0.375 2:-1 3:1 4:-0.132075 5:-0.351598 6:-1 7:1 8:0.358779 9:-1 10:0.16129 11:1 12:0.333333 13:-1 
1 1:0.291667 2:1 3:0.333333 4:-0.132075 5:-0.730594 6:-1 7:1 8:0.282443 9:-1 10:-0.0322581 12:-1 13:-1 
1 1:-0.375 2:1 3:1 4:-0.660377 5:-0.251142 6:-1 7:1 8:0.251908 9:-1 10:-1 11:-1 12:-0.333333 13:-1 
1 1:0.458333 2:1 3:0.333333 4:-0.132075 5:-0.0456621 6:-1 7:-1 8:0.328244 9:-1 10:-1 11:-1 12:-1 13:-1 
1 1:0.208333 2:1 3:-0.333333 4:-0.509434 5:-0.278539 6:-1 7:1 8:0.358779 9:-1 10:-0.419355 12:-1 13:-1 
1 1:-0.208333 2:1 3:-0.333333 4:-0.698113 5:-0.52968 6:-1 7:-1 8:0.480916 9:-1 10:-0.677419 11:1 12:-1 13:1 
1 1:0.166667 2:1 3:-0.333333 4:-0.433962 5:-0.383562 6:-1 7:-1 8:0.0687023 9:-1 10:-0.903226 11:-1 12:-1 13:1 
1 1:0.333333 2:1 3:-1 4:-0.245283 5:-0.506849 6:-1 7:-1 8:0.129771 9:-1 10:-0.16129 12:0.333333 13:-1 
1 1:0.208333 2:1 3:0.333333 4:-0.660377 5:-0.525114 6:-1 7:1 8:0.435115 9:-1 10:-0.193548 12:-0.333333 13:1 
1 1:0.25 2:1 3:-1 4:0.245283 5:-0.328767 6:-1 7:1 8:-0.175573 9:-1 10:-1 11:-1 12:-1 13:-1 
1 1:-0.541667 2:1 3:1 4:0.0943396 5:-0.557078 6:-1 7:-1 8:0.679389 9:-1 10:-1 11:-1 12:-1 13:1 
1 1:0.25 2:1 3:0.333333 4:-0.396226 5:-0.579909 6:1 7:-1 8:-0.0381679 9:-1 10:-0.290323 12:-0.333333 13:0.5 
0.723491670457727 1:-0.166667 2:1 3:0.333333 4:-0.54717 5:-0.894977 6:-1 7:1 8:-0.160305 9:-1 10:-0.741935 11:-1 12:1 13:-1 
1 1:-0.375 2:1 3:1 4:-0.698113 5:-0.675799 6:-1 7:1 8:0.618321 9:-1 10:-1 11:-1 12:-0.333333 13:-1 
1 1:0.25 2:-1 3:1 4:0.509434 5:-0.438356 6:-1 7:-1 8:0.0992366 9:1 10:-1 12:-1 13:-1 
1 1:0.375 2:1 3:-0.333333 4:-0.509434 5:-0.292237 6:-1 7:1 8:-0.51145 9:-1 10:-0.548387 12:-0.333333 13:1 
1 1:0.208333 2:-1 3:-0.333333 4:-0.207547 5:-0.118721 6:1 7:1 8:0.236641 9:-1 10:-1 11:-1 12:0.333333 13:-1 
1 1:-0.25 2:1 3:0.333333 4:-0.735849 5:-0.465753 6:-1 7:-1 8:0.236641 9:-1 10:-1 11:-1 12:-1 13:-1 
0.154807274865747 1:-0.75 2:1 3:1 4:-0.509434 5:-0.671233 6:-1 7:-1 8:-0.0992366 9:1 10:-0.483871 12:-1 13:1 
1 1:0.333333 2:-1 3:1 4:-0.320755 5:-0.0684932 6:-1 7:1 8:0.496183 9:-1 10:-1 11:-1 12:-1 13:-1 
1 1:0.0416667 2:1 3:1 4:-0.698113 5:-0.634703 6:-1 7:1 8:-0.435115 9:1 10:-1 12:-0.333333 13:-1 
1 1:-0.0416667 2:1 3:1 4:-0.415094 5:-0.607306 6:-1 7:-1 8:0.480916 9:-1 10:-0.677419 11:-1 12:0.333333 13:1 
0.5836699234056935 1:-0.25 2:1 3:1 4:-0.698113 5:-0.319635 6:-1 7:1 8:-0.282443 9:1 10:-0.677419 12:-0.333333 13:-1 
1 1:0.208333 2:1 3:1 4:-0.886792 5:-0.506849 6:-1 7:-1 8:0.29771 9:-1 10:-0.967742 11:-1 12:-0.333333 13:1 
1 1:0.583333 2:1 3:1 4:-0.509434 5:-0.493151 6:-1 7:-1 8:-1 9:-1 10:-0.677419 12:-1 13:-1 
1 1:-0.208333 2:1 3:1 4:-0.433962 5:-0.324201 6:-1 7:1 8:0.450382 9:-1 10:-0.83871 12:-1 13:1 
1 1:0.25 2:1 3:1 4:-0.132075 5:-0.767123 6:-1 7:-1 8:0.389313 9:1 10:-1 11:-1 12:-0.333333 13:1 
1 1:0.0833333 2:-1 3:1 4:0.622642 5:-0.0821918 6:-1 8:-0.29771 9:1 10:0.0967742 12:-1 13:-1 
1 1:0.291667 2:-1 3:1 4:0.207547 5:-0.182648 6:-1 7:1 8:0.374046 9:-1 10:-1 11:-1 12:-1 13:-1 
1 1:-0.291667 2:1 3:1 4:-0.509434 5:-0.438356 6:-1 7:1 8:0.114504 9:-1 10:-0.741935 11:-1 12:-1 13:1 
0.7719045391021946 1:0.291667 2:1 3:1 4:-0.566038 5:-0.525114 6:1 7:-1 8:0.358779 9:1 10:-0.548387 11:-1 12:0.333333 13:1 
0.3479113468092982 1:0.416667 2:-1 3:1 4:-0.735849 5:-0.347032 6:-1 7:-1 8:0.496183 9:1 10:-0.419355 12:0.333333 13:-1 
1 1:0.541667 2:1 3:1 4:-0.660377 5:-0.607306 6:-1 7:1 8:-0.0687023 9:1 10:-0.967742 11:-1 12:-0.333333 13:-1 
1 1:0.125 2:1 3:1 4:-0.415094 5:-0.438356 6:1 7:1 8:0.114504 9:1 10:-0.612903 12:-0.333333 13:-1 
1 1:-0.125 2:1 3:0.333333 4:-0.132075 5:-0.511416 6:-1 7:-1 8:0.40458 9:-1 10:-0.806452 12:-0.333333 13:1 
1 1:0.0416667 2:1 3:-0.333333 4:0.849057 5:-0.283105 6:-1 7:1 8:0.89313 9:-1 10:-1 11:-1 12:-0.333333 13:1 
1 1:-0.0416667 2:1 3:1 4:-0.660377 5:-0.525114 6:-1 7:-1 8:0.358779 9:-1 10:-1 11:-1 12:-0.333333 13:-1 
1 1:-0.625 2:1 3:-1 4:-0.509434 5:-0.520548 6:-1 7:-1 8:0.694656 9:1 10:0.225806 12:-1 13:1 
1 1:0.375 2:-1 3:1 4:0.0566038 5:-0.461187 6:-1 7:-1 8:0.267176 9:1 10:-0.548387 12:-1 13:-1 
1 1:0.5 2:1 3:-1 4:-0.169811 5:-0.287671 6:1 7:1 8:0.572519 9:-1 10:-0.548387 12:-0.333333 13:-1 
1 1:0.375 2:-1 3:1 4:-0.169811 5:-0.232877 6:1 7:-1 8:-0.465649 9:-1 10:-0.387097 12:1 13:-1 
1 1:-0.291667 2:1 3:0.333333 4:0.0566038 5:-0.520548 6:-1 7:-1 8:0.160305 9:-1 10:0.16129 12:-1 13:-1 
1 1:0.583333 2:1 3:1 4:-0.415094 5:-0.415525 6:1 7:-1 8:0.40458 9:-1 10:-0.935484 12:0.333333 13:1 
1 1:-0.5 2:1 3:1 4:-0.698113 5:-0.789954 6:-1 7:1 8:0.328244 9:-1 10:-1 11:-1 12:-1 13:1 
1 1:-0.75 2:1 3:1 4:-0.396226 5:-0.287671 6:-1 7:1 8:0.29771 9:1 10:-1 11:-1 12:-1 13:1 
1 1:-0.0833333 2:1 3:1 4:-0.132075 5:-0.210046 6:-1 7:-1 8:0.557252 9:1 10:-0.483871 11:-1 12:-1 13:1 
1 1:0.458333 2:1 3:0.333333 4:-0.415094 5:-0.164384 6:-1 7:-1 8:-0.0839695 9:1 10:-0.419355 12:-1 13:1 
1 1:0.25 2:1 3:-1 4:0.433962 5:-0.260274 6:-1 7:1 8:0.343511 9:-1 10:-0.935484 12:-1 13:1 
1 1:0.375 2:-1 3:0.333333 4:-0.320755 5:-0.374429 6:-1 7:-1 8:-0.603053 9:-1 10:-0.612903 12:-0.333333 13:1 
1 1:0.333333 2:-1 3:1 4:-0.0377358 5:-0.173516 6:-1 7:1 8:0.145038 9:1 10:-0.677419 12:-1 13:1 
1 1:-0.583333 2:1 3:1 4:-0.54717 5:-0.575342 6:-1 7:-1 8:0.0534351 9:-1 10:-0.612903 12:-1 13:1 
1 1:-0.0416667 2:1 3:1 4:-0.358491 5:-0.410959 6:-1 7:-1 8:0.374046 9:1 10:-1 11:-1 12:-0.333333 13:1 
1 1:0.625 2:1 3:0.333333 4:0.622642 5:-0.324201 6:1 7:1 8:0.206107 9:1 10:-0.483871 12:-1 13:1 
1 1:0.375 2:-1 3:1 4:-0.132075 5:-0.351598 6:-1 7:1 8:0.358779 9:-1 10:0.16129 11:1 12:0.333333 13:-1 
1 1:0.291667 2:1 3:0.333333 4:-0.132075 5:-0.730594 6:-1 7:1 8:0.282443 9:-1 10:-0.0322581 12:-1 13:-1 
1 1:-0.375 2:1 3:1 4:-0.660377 5:-0.251142 6:-1 7:1 8:0.251908 9:-1 10:-1 11:-1 12:-0.333333 13:-1 
1 1:0.458333 2:1 3:0.333333 4:-0.132075 5:-0.0456621 6:-1 7:-1 8:0.328244 9:-1 10:-1 11:-1 12:-1 13:-1 
1 1:0.208333 2:1 3:-0.333333 4:-0.509434 5:-0.278539 6:-1 7:1 8:0.358779 9:-1 10:-0.419355 12:-1 13:-1 
1 1:-0.208333 2:1 3:-0.333333 4:-0.698113 5:-0.52968 6:-1 7:-1 8:0.480916 9:-1 10:-0.677419 11:1 12:-1 13:1 
1 1:0.166667 2:1 3:-0.333333 4:-0.433962 5:-0.383562 6:-1 7:-1 8:0.0687023 9:-1 10:-0.903226 11:-1 12:-1 13:1 
1 1:0.333333 2:1 3:-1 4:-0.245283 5:-0.506849 6:-1 7:-1 8:0.129771 9:-1 10:-0.16129 12:0.333333 13:-1 
0.4596868282069198 1:0.208333 2:1 3:0.333333 4:-0.660377 5:-0.525114 6:-1 7:1 8:0.435115 9:-1 10:-0.193548 12:-0.333333 13:1 
1 1:0.25 2:1 3:-1 4:0.245283 5:-0.328767 6:-1 7:1 8:-0.175573 9:-1 10:-1 11:-1 12:-1 13:-1 
1 1:-0.541667 2:1 3:1 4:0.0943396 5:-0.557078 6:-1 7:-1 8:0.679389 9:-1 10:-1 11:-1 12:-1 13:1 
1 1:0.25 2:1 3:0.333333 4:-0.396226 5:-0.579909 6:1 7:-1 8:-0.0381679 9:-1 10:-0.290323 12:-0.333333 13:0.5 
0.5734333769801284 1:-0.166667 2:1 3:0.333333 4:-0.54717 5:-0.894977 6:-1 7:1 8:-0.160305 9:-1 10:-0.741935 11:-1 12:1 13:-1 
1 1:-0.375 2:1 3:1 4:-0.698113 5:-0.675799 6:-1 7:1 8:0.618321 9:-1 10:-1 11:-1 12:-0.333333 13:-1 
1 1:0.25 2:-1 3:1 4:0.509434 5:-0.438356 6:-1 7:-1 8:0.0992366 9:1 10:-1 12:-1 13:-1 
1 1:0.375 2:1 3:-0.333333 4:-0.509434 5:-0.292237 6:-1 7:1 8:-0.51145 9:-1 10:-0.548387 12:-0.333333 13:1 
1 1:0.208333 2:-1 3:-0.333333 4:-0.207547 5:-0.118721 6:1 7:1 8:0.236641 9:-1 10:-1 11:-1 12:0.333333 13:-1 
1 1:-0.25 2:1 3:0.333333 4:-0.735849 5:-0.465753 6:-1 7:-1 8:0.236641 9:-1 10:-1 11:-1 12:-1 13:-1 
1 1:0.333333 2:-1 3:1 4:-0.320755 5:-0.0684932 6:-1 7:1 8:0.496183 9:-1 10:-1 11:-1 12:-1 13:-1 
1 1:0.0416667 2:1 3:1 4:-0.698113 5:-0.634703 6:-1 7:1 8:-0.435115 9:1 10:-1 12:-0.333333 13:-1 
0.9895650529474148 1:-0.0416667 2:1 3:1 4:-0.415094 5:-0.607306 6:-1 7:-1 8:0.480916 9:-1 10:-0.677419 11:-1 12:0.333333 13:1 
1 1:-0.25 2:1 3:1 4:-0.698113 5:-0.319635 6:-1 7:1 8:-0.282443 9:1 10:-0.677419 12:-0.333333 13:-1 
1 1:0.208333 2:1 3:1 4:-0.886792 5:-0.506849 6:-1 7:-1 8:0.29771 9:-1 10:-0.967742 11:-1 12:-0.333333 13:1 
1 1:0.583333 2:1 3:1 4:-0.509434 5:-0.493151 6:-1 7:-1 8:-1 9:-1 10:-0.677419 12:-1 13:-1 
1 1:-0.208333 2:1 3:1 4:-0.433962 5:-0.324201 6:-1 7:1 8:0.450382 9:-1 10:-0.83871 12:-1 13:1 
1 1:0.25 2:1 3:1 4:-0.132075 5:-0.767123 6:-1 7:-1 8:0.389313 9:1 10:-1 11:-1 12:-0.333333 13:1 
0.9694728056294741 1:0.0833333 2:-1 3:1 4:0.622642 5:-0.0821918 6:-1 8:-0.29771 9:1 10:0.0967742 12:-1 13:-1 
1 1:0.291667 2:-1 3:1 4:0.207547 5:-0.182648 6:-1 7:1 8:0.374046 9:-1 10:-1 11:-1 12:-1 13:-1 
1 1:-0.291667 2:1 3:1 4:-0.509434 5:-0.438356 6:-1 7:1 8:0.114504 9:-1 10:-0.741935 11:-1 12:-1 13:1 
0.1347153242576591 1:0.291667 2:1 3:1 4:-0.566038 5:-0.525114 6:1 7:-1 8:0.358779 9:1 10:-0.548387 11:-1 12:0.333333 13:1 
1 1:0.416667 2:-1 3:1 4:-0.735849 5:-0.347032 6:-1 7:-1 8:0.496183 9:1 10:-0.419355 12:0.333333 13:-1 
1 1:0.541667 2:1 3:1 4:-0.660377 5:-0.607306 6:-1 7:1 8:-0.0687023 9:1 10:-0.967742 11:-1 12:-0.333333 13:-1 
0.7457955584559671 1:0.125 2:1 3:1 4:-0.415094 5:-0.438356 6:1 7:1 8:0.114504 9:1 10:-0.612903 12:-0.333333 13:-1 
1 1:-0.125 2:1 3:0.333333 4:-0.132075 5:-0.511416 6:-1 7:-1 8:0.40458 9:-1 10:-0.806452 12:-0.333333 13:1 
1 1:0.0416667 2:1 3:-0.333333 4:0.849057 5:-0.283105 6:-1 7:1 8:0.89313 9:-1 10:-1 11:-1 12:-0.333333 13:1 
1 1:-0.0416667 2:1 3:1 4:-0.660377 5:-0.525114 6:-1 7:-1 8:0.358779 9:-1 10:-1 11:-1 12:-0.333333 13:-1 
0.6164537047563242 1:-0.541667 2:1 3:1 4:-0.698113 5:-0.812785 6:-1 7:1 8:-0.343511 9:1 10:-0.354839 12:-1 13:1 
1 1:-0.625 2:1 3:-1 4:-0.509434 5:-0.520548 6:-1 7:-1 8:0.694656 9:1 10:0.225806 12:-1 13:1 
1 1:0.375 2:-1 3:1 4:0.0566038 5:-0.461187 6:-1 7:-1 8:0.267176 9:1 10:-0.548387 12:-1 13:-1 
1 1:0.5 2:1 3:-1 4:-0.169811 5:-0.287671 6:1 7:1 8:0.572519 9:-1 10:-0.548387 12:-0.333333 13:-1 
1 1:0.375 2:-1 3:1 4:-0.169811 5:-0.232877 6:1 7:-1 8:-0.465649 9:-1 10:-0.387097 12:1 13:-1 
1 1:-0.291667 2:1 3:0.333333 4:0.0566038 5:-0.520548 6:-1 7:-1 8:0.160305 9:-1 10:0.16129 12:-1 13:-1 
1 1:0.583333 2:1 3:1 4:-0.415094 5:-0.415525 6:1 7:-1 8:0.40458 9:-1 10:-0.935484 12:0.333333 13:1 
1 1:-0.5 2:1 3:1 4:-0.698113 5:-0.789954 6:-1 7:1 8:0.328244 9:-1 10:-1 11:-1 12:-1 13:1 
0.6056028811159211 1:0.708333 2:1 3:1 4:-0.0377358 5:-0.780822 6:-1 7:-1 8:-0.175573 9:1 10:-0.16129 11:1 12:-1 13:1 
1 1:-0.75 2:1 3:1 4:-0.396226 5:-0.287671 6:-1 7:1 8:0.29771 9:1 10:-1 11:-1 12:-1 13:1 
1 1:-0.0833333 2:1 3:1 4:-0.132075 5:-0.210046 6:-1 7:-1 8:0.557252 9:1 10:-0.483871 11:-1 12:-1 13:1 
1 1:0.458333 2:1 3:0.333333 4:-0.415094 5:-0.164384 6:-1 7:-1 8:-0.0839695 9:1 10:-0.419355 12:-1 13:1 
1 1:0.25 2:1 3:-1 4:0.433962 5:-0.260274 6:-1 7:1 8:0.343511 9:-1 10:-0.935484 12:-1 13:1 
1 1:0.375 2:-1 3:0.333333 4:-0.320755 5:-0.374429 6:-1 7:-1 8:-0.603053 9:-1 10:-0.612903 12:-0.333333 13:1 
1 1:0.333333 2:-1 3:1 4:-0.0377358 5:-0.173516 6:-1 7:1 8:0.145038 9:1 10:-0.677419 12:-1 13:1 
1 1:-0.583333 2:1 3:1 4:-0.54717 5:-0.575342 6:-1 7:-1 8:0.0534351 9:-1 10:-0.612903 12:-1 13:1 
1 1:-0.0416667 2:1 3:1 4:-0.358491 5:-0.410959 6:-1 7:-1 8:0.374046 9:1 10:-1 11:-1 12:-0.333333 13:1 
1 1:0.625 2:1 3:0.333333 4:0.622642 5:-0.324201 6:1 7:1 8:0.206107 9:1 10:-0.483871 12:-1 13:1 
0.988913622985255 1:0.375 2:-1 3:1 4:-0.132075 5:-0.351598 6:-1 7:1 8:0.358779 9:-1 10:0.16129 11:1 12:0.333333 13:-1 
1 1:0.291667 2:1 3:0.333333 4:-0.132075 5:-0.730594 6:-1 7:1 8:0.282443 9:-1 10:-0.0322581 12:-1 13:-1 
1 1:-0.375 2:1 3:1 4:-0.660377 5:-0.251142 6:-1 7:1 8:0.251908 9:-1 10:-1 11:-1 12:-0.333333 13:-1 
1 1:0.458333 2:1 3:0.333333 4:-0.132075 5:-0.0456621 6:-1 7:-1 8:0.328244 9:-1 10:-1 11:-1 12:-1 13:-1 
1 1:0.208333 2:1 3:-0.333333 4:-0.509434 5:-0.278539 6:-1 7:1 8:0.358779 9:-1 10:-0.419355 12:-1 13:-1 
1 1:-0.208333 2:1 3:-0.333333 4:-0.698113 5:-0.52968 6:-1 7:-1 8:0.480916 9:-1 10:-0.677419 11:1 12:-1 13:1 
-0.298502463188185 1:0.583333 2:-1 3:0.333333 4:-0.603774 5:1 6:-1 7:1 8:0.358779 9:-1 10:-0.483871 12:-1 13:1 
-1 1:0.458333 2:1 3:1 4:-0.358491 5:-0.374429 6:-1 7:-1 8:-0.480916 9:1 10:-0.935484 12:-0.333333 13:1 
-1 1:0.5 2:1 3:1 4:-0.509434 5:-0.767123 6:-1 7:-1 8:0.0534351 9:-1 10:-0.870968 11:-1 12:-1 13:1 
-1 1:0.25 2:1 3:1 4:-0.226415 5:-0.506849 6:-1 7:-1 8:0.374046 9:-1 10:-0.83871 12:-1 13:1 
-1 2:1 3:1 4:-0.0943396 5:-0.543379 6:-1 7:1 8:-0.389313 9:1 10:-1 11:-1 12:-1 13:1 
-1 1:0.166667 2:-1 3:1 4:-0.358491 5:-0.191781 6:-1 7:1 8:0.343511 9:-1 10:-1 11:-1 12:-0.333333 13:-1 
-0.4778578602617669 1:-0.541667 2:1 3:-1 4:-0.132075 5:-0.666667 6:-1 7:-1 8:0.633588 9:1 10:-0.548387 11:-1 12:-1 13:1 
-1 1:-0.25 2:1 3:1 4:-0.660377 5:-0.643836 6:-1 7:-1 8:0.0992366 9:-1 10:-0.967742 11:-1 12:-1 13:-1 
-1 1:0.541667 2:1 3:1 4:0.245283 5:-0.534247 6:-1 7:1 8:0.0229008 9:-1 10:-0.258065 11:-1 12:-1 13:0.5 
-1 1:0.5 2:-1 3:0.333333 4:-0.132075 5:0.328767 6:1 7:1 8:0.312977 9:-1 10:-0.741935 11:-1 12:-0.333333 13:-1 
-1 1:0.708333 2:1 3:-0.333333 4:0.169811 5:-0.456621 6:-1 7:1 8:0.0992366 9:-1 10:-1 11:-1 12:-1 13:-1 
-1 1:-0.333333 2:1 3:1 4:-0.811321 5:-0.625571 6:-1 7:1 8:0.175573 9:1 10:-0.0322581 12:-1 13:-1 
-1 1:0.166667 2:1 3:1 4:-0.698113 5:-0.657534 6:-1 7:-1 8:-0.160305 9:1 10:-0.516129 12:-1 13:0.5 
-1 1:-0.458333 2:1 3:-1 4:0.0188679 5:-0.461187 6:-1 7:1 8:0.633588 9:-1 10:-0.741935 11:-1 12:0.333333 13:-1 
-1 1:0.25 2:1 3:-1 4:0.584906 5:-0.342466 6:-1 7:1 8:0.129771 9:-1 10:0.354839 11:1 12:-1 13:1 
-1 1:0.541667 2:1 3:1 4:-0.509434 5:-0.196347 6:-1 7:1 8:0.221374 9:-1 10:-0.870968 12:-1 13:-1 
-1 1:0.0416667 2:1 3:0.333333 4:-0.415094 5:-0.328767 6:-1 7:1 8:0.236641 9:-1 10:-0.83871 11:1 12:-0.333333 13:-1 
-1 1:0.0416667 2:1 3:0.333333 4:0.0566038 5:-0.515982 6:-1 7:1 8:0.435115 9:-1 10:-0.483871 11:-1 12:-1 13:1 
-1 1:0.166667 2:1 3:1 4:-0.283019 5:-0.630137 6:-1 7:-1 8:0.480916 9:1 10:-1 11:-1 12:-1 13:1 
-1 1:0.458333 2:-1 3:1 4:-0.320755 5:-0.191781 6:-1 7:-1 8:-0.221374 9:-1 10:-0.354839 12:0.333333 13:-1 
-1 1:0.125 2:1 3:-1 4:-0.509434 5:-0.694064 6:-1 7:1 8:0.389313 9:-1 10:-0.387097 12:-1 13:1 
-1 1:-0.416667 2:1 3:1 4:-0.698113 5:-0.611872 6:-1 7:-1 8:0.374046 9:-1 10:-1 11:-1 12:-1 13:1 
-1 1:0.458333 2:-1 3:1 4:0.622642 5:-0.0913242 6:-1 7:-1 8:0.267176 9:1 10:-1 11:-1 12:-1 13:-1 
-1 1:-0.333333 2:-1 3:1 4:-0.169811 5:-0.497717 6:-1 7:1 8:0.236641 9:1 10:-0.935484 12:-1 13:-1 
-1 1:0.666667 2:1 3:-1 4:0.245283 5:-0.506849 6:1 7:1 8:-0.0839695 9:-1 10:-0.967742 12:-0.333333 13:-1 
-1 1:-0.458333 2:1 3:0.333333 4:-0.509434 5:-0.479452 6:1 7:-1 8:0.877863 9:-1 10:-0.741935 11:1 12:-1 13:1 
-1 2:1 3:0.333333 4:-0.320755 5:-0.452055 6:1 7:1 8:0.557252 9:-1 10:-1 11:-1 12:1 13:-1 
-1 1:-0.416667 2:1 3:0.333333 4:-0.320755 5:-0.136986 6:-1 7:-1 8:0.389313 9:-1 10:-0.387097 11:-1 12:-0.333333 13:-1 
-1 1:-0.0416667 2:1 3:1 4:-0.735849 5:-0.511416 6:1 7:-1 8:0.160305 9:-1 10:-0.967742 11:-1 12:1 13:1 
-0.2259938329833663 1:0.0416667 2:1 3:1 4:-0.132075 5:-0.484018 6:-1 7:-1 8:0.358779 9:-1 10:-0.612903 11:-1 12:-1 13:-1 
-1 1:0.625 2:1 3:0.333333 4:-0.54717 5:-0.310502 6:-1 7:-1 8:0.221374 9:-1 10:-0.677419 11:-1 12:-0.333333 13:1 
-1 1:0.208333 2:1 3:0.333333 4:-0.792453 5:-0.479452 6:-1 7:1 8:0.267176 9:1 10:-0.806452 12:-1 13:1 
-0.2323630686502721 1:-0.666667 2:1 3:0.333333 4:-0.320755 5:-0.43379 6:-1 7:-1 8:0.770992 9:-1 10:0.129032 11:1 12:-1 13:-1 
-1 1:-0.0833333 2:1 3:0.333333 4:-1 5:-0.538813 6:-1 7:-1 8:0.267176 9:1 10:-1 11:-1 12:-0.333333 13:1 
-1 1:0.0416667 2:1 3:0.333333 4:-0.509434 5:-0.39726 6:-1 7:1 8:0.160305 9:-1 10:-0.870968 12:-1 13:1 
-1 1:-0.5 2:1 3:-0.333333 4:-0.226415 5:-0.648402 6:-1 7:-1 8:-0.0687023 9:-1 10:-1 12:-1 13:0.5 
-1 1:-0.333333 2:1 3:1 4:-0.603774 5:-0.388128 6:-1 7:1 8:0.740458 9:-1 10:-1 11:-1 12:-1 13:-1 
-1 1:0.375 2:1 3:0.333333 4:-0.320755 5:-0.520548 6:-1 7:-1 8:0.145038 9:-1 10:-0.419355 12:1 13:1 
-1 1:0.333333 2:1 3:0.333333 4:0.0566038 5:-0.465753 6:1 7:-1 8:0.00763359 9:1 10:-0.677419 12:-1 13:-1 
-0.3643648052488331 1:-0.375 2:1 3:-0.333333 4:-0.509434 5:-0.374429 6:-1 7:-1 8:0.557252 9:-1 10:-1 11:-1 12:-1 13:1 
-1 1:0.166667 2:1 3:1 4:-0.132075 5:-0.69863 6:-1 7:-1 8:0.175573 9:-1 10:-0.870968 12:-1 13:0.5 
-1 1:0.583333 2:-1 3:0.333333 4:-0.603774 5:1 6:-1 7:1 8:0.358779 9:-1 10:-0.483871 12:-1 13:1 
-1 1:0.458333 2:1 3:1 4:-0.358491 5:-0.374429 6:-1 7:-1 8:-0.480916 9:1 10:-0.935484 12:-0.333333 13:1 
-1 1:0.5 2:1 3:1 4:-0.509434 5:-0.767123 6:-1 7:-1 8:0.0534351 9:-1 10:-0.870968 11:-1 12:-1 13:1 
-1 1:0.25 2:1 3:1 4:-0.226415 5:-0.506849 6:-1 7:-1 8:0.374046 9:-1 10:-0.83871 12:-1 13:1 
-1 2:1 3:1 4:-0.0943396 5:-0.543379 6:-1 7:1 8:-0.389313 9:1 10:-1 11:-1 12:-1 13:1 
-1 1:0.166667 2:-1 3:1 4:-0.358491 5:-0.191781 6:-1 7:1 8:0.343511 9:-1 10:-1 11:-1 12:-0.333333 13:-1 
-1 1:-0.541667 2:1 3:-1 4:-0.132075 5:-0.666667 6:-1 7:-1 8:0.633588 9:1 10:-0.548387 11:-1 12:-1 13:1 
-1 1:-0.25 2:1 3:1 4:-0.660377 5:-0.643836 6:-1 7:-1 8:0.0992366 9:-1 10:-0.967742 11:-1 12:-1 13:-1 
-0.03302896283403885 1:-0.291667 2:-1 3:1 4:-0.169811 5:-0.465753 6:-1 7:1 8:0.236641 9:1 10:-1 12:-1 13:-1 
-1 1:0.541667 2:1 3:1 4:0.245283 5:-0.534247 6:-1 7:1 8:0.0229008 9:-1 10:-0.258065 11:-1 12:-1 13:0.5 
-1 1:0.5 2:-1 3:0.333333 4:-0.132075 5:0.328767 6:1 7:1 8:0.312977 9:-1 10:-0.741935 11:-1 12:-0.333333 13:-1 
-1 1:0.708333 2:1 3:-0.333333 4:0.169811 5:-0.456621 6:-1 7:1 8:0.0992366 9:-1 10:-1 11:-1 12:-1 13:-1 
-1 1:-0.333333 2:1 3:1 4:-0.811321 5:-0.625571 6:-1 7:1 8:0.175573 9:1 10:-0.0322581 12:-1 13:-1 
-0.055684844950339 1:-0.5 2:1 3:0.333333 4:-0.320755 5:-0.598174 6:-1 7:1 8:0.480916 9:-1 10:-0.354839 12:-1 13:-1 
-1 1:0.166667 2:1 3:1 4:-0.698113 5:-0.657534 6:-1 7:-1 8:-0.160305 9:1 10:-0.516129 12:-1 13:0.5 
-1 1:-0.458333 2:1 3:-1 4:0.0188679 5:-0.461187 6:-1 7:1 8:0.633588 9:-1 10:-0.741935 11:-1 12:0.333333 13:-1 
-1 1:0.25 2:1 3:-1 4:0.584906 5:-0.342466 6:-1 7:1 8:0.129771 9:-1 10:0.354839 11:1 12:-1 13:1 
-1 1:0.541667 2:1 3:1 4:-0.509434 5:-0.196347 6:-1 7:1 8:0.221374 9:-1 10:-0.870968 12:-1 13:-1 
-0.3310632090645055 1:0.541667 2:-1 3:-1 4:0.0566038 5:-0.543379 6:-1 7:-1 8:-0.343511 9:-1 10:-0.16129 11:1 12:-1 13:-1 
-1 1:0.0416667 2:1 3:0.333333 4:-0.415094 5:-0.328767 6:-1 7:1 8:0.236641 9:-1 10:-0.83871 11:1 12:-0.333333 13:-1 
-1 1:-0.0416667 2:1 3:-0.333333 4:-0.245283 5:-0.657534 6:-1 7:-1 8:0.328244 9:-1 10:-0.741935 11:-1 12:-0.333333 13:-1 
-1 1:0.0416667 2:1 3:0.333333 4:0.0566038 5:-0.515982 6:-1 7:1 8:0.435115 9:-1 10:-0.483871 11:-1 12:-1 13:1 
-1 1:0.166667 2:1 3:1 4:-0.283019 5:-0.630137 6:-1 7:-1 8:0.480916 9:1 10:-1 11:-1 12:-1 13:1 
-1 1:0.458333 2:-1 3:1 4:-0.320755 5:-0.191781 6:-1 7:-1 8:-0.221374 9:-1 10:-0.354839 12:0.333333 13:-1 
-1 1:0.125 2:1 3:-1 4:-0.509434 5:-0.694064 6:-1 7:1 8:0.389313 9:-1 10:-0.387097 12:-1 13:1 
-1 1:-0.416667 2:1 3:1 4:-0.698113 5:-0.611872 6:-1 7:-1 8:0.374046 9:-1 10:-1 11:-1 12:-1 13:1 
-1 1:0.458333 2:-1 3:1 4:0.622642 5:-0.0913242 6:-1 7:-1 8:0.267176 9:1 10:-1 11:-1 12:-1 13:-1 
-1 1:-0.333333 2:-1 3:1 4:-0.169811 5:-0.497717 6:-1 7:1 8:0.236641 9:1 10:-0.935484 12:-1 13:-1 
-1 1:0.666667 2:1 3:-1 4:0.245283 5:-0.506849 6:1 7:1 8:-0.0839695 9:-1 10:-0.967742 12:-0.333333 13:-1 
-1 1:-0.458333 2:1 3:0.333333 4:-0.509434 5:-0.479452 6:1 7:-1 8:0.877863 9:-1 10:-0.741935 11:1 12:-1 13:1 
-1 2:1 3:0.333333 4:-0.320755 5:-0.452055 6:1 7:1 8:0.557252 9:-1 10:-1 11:-1 12:1 13:-1 
-1 1:-0.416667 2:1 3:0.333333 4:-0.320755 5:-0.136986 6:-1 7:-1 8:0.389313 9:-1 10:-0.387097 11:-1 12:-0.333333 13:-1 
-1 1:-0.0416667 2:1 3:1 4:-0.735849 5:-0.511416 6:1 7:-1 8:0.160305 9:-1 10:-0.967742 11:-1 12:1 13:1 
-1 1:0.0416667 2:1 3:1 4:-0.132075 5:-0.484018 6:-1 7:-1 8:0.358779 9:-1 10:-0.612903 11:-1 12:-1 13:-1 
-1 1:0.625 2:1 3:0.333333 4:-0.54717 5:-0.310502 6:-1 7:-1 8:0.221374 9:-1 10:-0.677419 11:-1 12:-0.333333 13:1 
-1 1:0.208333 2:1 3:0.333333 4:-0.792453 5:-0.479452 6:-1 7:1 8:0.267176 9:1 10:-0.806452 12:-1 13:1 
-1 1:-0.666667 2:1 3:0.333333 4:-0.320755 5:-0.43379 6:-1 7:-1 8:0.770992 9:-1 10:0.129032 11:1 12:-1 13:-1 
-1 1:-0.0833333 2:1 3:0.333333 4:-1 5:-0.538813 6:-1 7:-1 8:0.267176 9:1 10:-1 11:-1 12:-0.333333 13:1 
-1 1:0.0416667 2:1 3:0.333333 4:-0.509434 5:-0.39726 6:-1 7:1 8:0.160305 9:-1 10:-0.870968 12:-1 13:1 
-1 1:-0.5 2:1 3:-0.333333 4:-0.226415 5:-0.648402 6:-1 7:-1 8:-0.0687023 9:-1 10:-1 12:-1 13:0.5 
-1 1:-0.333333 2:1 3:1 4:-0.603774 5:-0.388128 6:-1 7:1 8:0.740458 9:-1 10:-1 11:-1 12:-1 13:-1 
-1 1:0.375 2:1 3:0.333333 4:-0.320755 5:-0.520548 6:-1 7:-1 8:0.145038 9:-1 10:-0.419355 12:1 13:1 
-0.4923176094702567 1:-0.25 2:1 3:0.333333 4:-0.169811 5:-0.401826 6:-1 7:1 8:0.29771 9:-1 10:-1 11:-1 12:-1 13:-1 
-1 1:0.333333 2:1 3:0.333333 4:0.0566038 5:-0.465753 6:1 7:-1 8:0.00763359 9:1 10:-0.677419 12:-1 13:-1 
-1 1:-0.375 2:1 3:-0.333333 4:-0.509434 5:-0.374429 6:-1 7:-1 8:0.557252 9:-1 10:-1 11:-1 12:-1 13:1 
-1 1:0.166667 2:1 3:1 4:-0.132075 5:-0.69863 6:-1 7:-1 8:0.175573 9:-1 10:-0.870968 12:-1 13:0.5 
-1 1:0.583333 2:-1 3:0.333333 4:-0.603774 5:1 6:-1 7:1 8:0.358779 9:-1 10:-0.483871 12:-1 13:1 
-1 1:0.458333 2:1 3:1 4:-0.358491 5:-0.374429 6:-1 7:-1 8:-0.480916 9:1 10:-0.935484 12:-0.333333 13:1 
-1 1:0.5 2:1 3:1 4:-0.509434 5:-0.767123 6:-1 7:-1 8:0.0534351 9:-1 10:-0.870968 11:-1 12:-1 13:1 
-1 1:0.25 2:1 3:1 4:-0.226415 5:-0.506849 6:-1 7:-1 8:0.374046 9:-1 10:-0.83871 12:-1 13:1 
-1 2:1 3:1 4:-0.0943396 5:-0.543379 6:-1 7:1 8:-0.389313 9:1 10:-1 11:-1 12:-1 13:1 
-1 1:0.166667 2:-1 3:1 4:-0.358491 5:-0.191781 6:-1 7:1 8:0.343511 9:-1 10:-1 11:-1 12:-0.333333 13:-1 
-1 1:-0.541667 2:1 3:-1 4:-0.132075 5:-0.666667 6:-1 7:-1 8:0.633588 9:1 10:-0.548387 11:-1 12:-1 13:1 
-0.8151130996453056 1:-0.25 2:1 3:1 4:-0.660377 5:-0.643836 6:-1 7:-1 8:0.0992366 9:-1 10:-0.967742 11:-1 12:-1 13:-1 
-1 1:-0.291667 2:-1 3:1 4:-0.169811 5:-0.465753 6:-1 7:1 8:0.236641 9:1 10:-1 12:-1 13:-1 
-1 1:0.541667 2:1 3:1 4:0.245283 5:-0.534247 6:-1 7:1 8:0.0229008 9:-1 10:-0.258065 11:-1 12:-1 13:0.5 
-0.7310272728812225 1:0.5 2:-1 3:0.333333 4:-0.132075 5:0.328767 6:1 7:1 8:0.312977 9:-1 10:-0.741935 11:-1 12:-0.333333 13:-1 
-0.9780788751817346 1:-0.0833333 2:1 3:1 4:-0.132075 5:-0.383562 6:-1 7:1 8:0.755725 9:1 10:-1 11:-1 12:-1 13:-1 
-0.5964205507059747 1:0.708333 2:1 3:-0.333333 4:0.169811 5:-0.456621 6:-1 7:1 8:0.0992366 9:-1 10:-1 11:-1 12:-1 13:-1 
-1 1:-0.333333 2:1 3:1 4:-0.811321 5:-0.625571 6:-1 7:1 8:0.175573 9:1 10:-0.0322581 12:-1 13:-1 
-1 1:0.166667 2:1 3:1 4:-0.698113 5:-0.657534 6:-1 7:-1 8:-0.160305 9:1 10:-0.516129 12:-1 13:0.5 
-1 1:-0.458333 2:1 3:-1 4:0.0188679 5:-0.461187 6:-1 7:1 8:0.633588 9:-1 10:-0.741935 11:-1 12:0.333333 13:-1 
-1 1:0.25 2:1 3:-1 4:0.584906 5:-0.342466 6:-1 7:1 8:0.129771 9:-1 10:0.354839 11:1 12:-1 13:1 
-1 1:0.541667 2:1 3:1 4:-0.509434 5:-0.196347 6:-1 7:1 8:0.221374 9:-1 10:-0.870968 12:-1 13:-1 
-0.04171711257358623 1:0.458333 2:-1 3:0.333333 4:-0.132075 5:-0.146119 6:-1 7:-1 8:-0.0534351 9:-1 10:-0.935484 11:-1 12:-1 13:1 
-0.009780951692111689 1:-0.0833333 2:1 3:0.333333 4:-0.886792 5:-0.561644 6:-1 7:-1 8:0.0992366 9:1 10:-0.612903 12:-1 13:-1 
-1 1:0.541667 2:-1 3:-1 4:0.0566038 5:-0.543379 6:-1 7:-1 8:-0.343511 9:-1 10:-0.16129 11:1 12:-1 13:-1 
-1 1:0.0416667 2:1 3:0.333333 4:-0.415094 5:-0.328767 6:-1 7:1 8:0.236641 9:-1 10:-0.83871 11:1 12:-0.333333 13:-1 
-1 1:-0.0416667 2:1 3:-0.333333 4:-0.245283 5:-0.657534 6:-1 7:-1 8:0.328244 9:-1 10:-0.741935 11:-1 12:-0.333333 13:-1 
-1 1:0.0416667 2:1 3:0.333333 4:0.0566038 5:-0.515982 6:-1 7:1 8:0.435115 9:-1 10:-0.483871 11:-1 12:-1 13:1 
-1 1:0.166667 2:1 3:1 4:-0.283019 5:-0.630137 6:-1 7:-1 8:0.480916 9:1 10:-1 11:-1 12:-1 13:1 
-0.03289348157206002 1:0.25 2:1 3:1 4:-0.169811 5:-0.3379 6:-1 7:1 8:0.694656 9:-1 10:-1 11:-1 12:-1 13:-1 
-1 1:0.458333 2:-1 3:1 4:-0.320755 5:-0.191781 6:-1 7:-1 8:-0.221374 9:-1 10:-0.354839 12:0.333333 13:-1 
-1 1:0.125 2:1 3:-1 4:-0.509434 5:-0.694064 6:-1 7:1 8:0.389313 9:-1 10:-0.387097 12:-1 13:1 
-1 1:-0.416667 2:1 3:1 4:-0.698113 5:-0.611872 6:-1 7:-1 8:0.374046 9:-1 10:-1 11:-1 12:-1 13:1 
-1 1:0.458333 2:-1 3:1 4:0.622642 5:-0.0913242 6:-1 7:-1 8:0.267176 9:1 10:-1 11:-1 12:-1 13:-1 
-1 1:-0.333333 2:-1 3:1 4:-0.169811 5:-0.497717 6:-1 7:1 8:0.236641 9:1 10:-0.935484 12:-1 13:-1 
-1 1:0.666667 2:1 3:-1 4:0.245283 5:-0.506849 6:1 7:1 8:-0.0839695 9:-1 10:-0.967742 12:-0.333333 13:-1 
-1 1:-0.458333 2:1 3:0.333333 4:-0.509434 5:-0.479452 6:1 7:-1 8:0.877863 9:-1 10:-0.741935 11:1 12:-1 13:1 
-1 2:1 3:0.333333 4:-0.320755 5:-0.452055 6:1 7:1 8:0.557252 9:-1 10:-1 11:-1 12:1 13:-1 
-1 1:-0.416667 2:1 3:0.333333 4:-0.320755 5:-0.136986 6:-1 7:-1 8:0.389313 9:-1 10:-0.387097 11:-1 12:-0.333333 13:-1 
-1 1:-0.0416667 2:1 3:1 4:-0.735849 5:-0.511416 6:1 7:-1 8:0.160305 9:-1 10:-0.967742 11:-1 12:1 13:1 
-1 1:0.0416667 2:1 3:1 4:-0.132075 5:-0.484018 6:-1 7:-1 8:0.358779 9:-1 10:-0.612903 11:-1 12:-1 13:-1 
-1 1:0.625 2:1 3:0.333333 4:-0.54717 5:-0.310502 6:-1 7:-1 8:0.221374 9:-1 10:-0.677419 11:-1 12:-0.333333 13:1 
-1 1:0.208333 2:1 3:0.333333 4:-0.792453 5:-0.479452 6:-1 7:1 8:0.267176 9:1 10:-0.806452 12:-1 13:1 
-1 1:-0.666667 2:1 3:0.333333 4:-0.320755 5:-0.43379 6:-1 7:-1 8:0.770992 9:-1 10:0.129032 11:1 12:-1 13:-1 
-1 1:-0.0833333 2:1 3:0.333333 4:-1 5:-0.538813 6:-1 7:-1 8:0.267176 9:1 10:-1 11:-1 12:-0.333333 13:1 
-1 1:0.0416667 2:1 3:0.333333 4:-0.509434 5:-0.39726 6:-1 7:1 8:0.160305 9:-1 10:-0.870968 12:-1 13:1 
-1 1:-0.5 2:1 3:-0.333333 4:-0.226415 5:-0.648402 6:-1 7:-1 8:-0.0687023 9:-1 10:-1 12:-1 13:0.5 
-1 1:-0.333333 2:1 3:1 4:-0.603774 5:-0.388128 6:-1 7:1 8:0.740458 9:-1 10:-1 11:-1 12:-1 13:-1 
-1 1:0.375 2:1 3:0.333333 4:-0.320755 5:-0.520548 6:-1 7:-1 8:0.145038 9:-1 10:-0.419355 12:1 13:1 
-1 1:-0.25 2:1 3:0.333333 4:-0.169811 5:-0.401826 6:-1 7:1 8:0.29771 9:-1 10:-1 11:-1 12:-1 13:-1 
-1 1:-0.0833333 2:-1 3:0.333333 4:-0.132075 5:-0.16895 6:-1 7:1 8:0.0839695 9:-1 10:-0.516129 11:-1 12:-0.333333 13:-1 
-1 1:0.333333 2:1 3:0.333333 4:0.0566038 5:-0.465753 6:1 7:-1 8:0.00763359 9:1 10:-0.677419 12:-1 13:-1 
-1 1:-0.375 2:1 3:-0.333333 4:-0.509434 5:-0.374429 6:-1 7:-1 8:0.557252 9:-1 10:-1 11:-1 12:-1 13:1 
-1 1:0.166667 2:1 3:1 4:-0.132075 5:-0.69863 6:-1 7:-1 8:0.175573 9:-1 10:-0.870968 12:-1 13:0.5 
-1 1:0.583333 2:-1 3:0.333333 4:-0.603774 5:1 6:-1 7:1 8:0.358779 9:-1 10:-0.483871 12:-1 13:1 
-1 1:0.458333 2:1 3:1 4:-0.358491 5:-0.374429 6:-1 7:-1 8:-0.480916 9:1 10:-0.935484 12:-0.333333 13:1 
-1 1:0.5 2:1 3:1 4:-0.509434 5:-0.767123 6:-1 7:-1 8:0.0534351 9:-1 10:-0.870968 11:-1 12:-1 13:1 
-1 1:0.25 2:1 3:1 4:-0.226415 5:-0.506849 6:-1 7:-1 8:0.374046 9:-1 10:-0.83871 12:-1 13:1 
-1 2:1 3:1 4:-0.0943396 5:-0.543379 6:-1 7:1 8:-0.389313 9:1 10:-1 11:-1 12:-1 13:1 
-1 1:0.166667 2:-1 3:1 4:-0.358491 5:-0.191781 6:-1 7:1 8:0.343511 9:-1 10:-1 11:-1 12:-0.333333 13:-1 
-1 1:0.75 2:-1 3:1 4:-0.660377 5:-0.894977 6:-1 7:-1 8:-0.175573 9:-1 10:-0.483871 12:-1 13:-1 
-1 1:-0.541667 2:1 3:-1 4:-0.132075 5:-0.666667 6:-1 7:-1 8:0.633588 9:1 10:-0.548387 11:-1 12:-1 13:1 
-1 1:-0.291667 2:-1 3:1 4:-0.169811 5:-0.465753 6:-1 7:1 8:0.236641 9:1 10:-1 12:-1 13:-1 
-0.4801704196463965 1:0.75 2:-1 3:0.333333 4:-0.698113 5:-0.365297 6:1 7:1 8:-0.0992366 9:-1 10:-1 11:-1 12:-0.333333 13:-1 
-1 1:0.541667 2:1 3:1 4:0.245283 5:-0.534247 6:-1 7:1 8:0.0229008 9:-1 10:-0.258065 11:-1 12:-1 13:0.5 
-0.04227771724083028 1:-0.208333 2:1 3:1 4:-0.471698 5:-0.561644 6:-1 7:1 8:0.755725 9:-1 10:-1 11:-1 12:-1 13:-1 
-1 1:0.166667 2:1 3:0.333333 4:0.0566038 5:-1 6:1 7:-1 8:0.557252 9:-1 10:-0.935484 11:-1 12:-0.333333 13:1 
-1 1:-0.0833333 2:1 3:1 4:-0.132075 5:-0.383562 6:-1 7:1 8:0.755725 9:1 10:-1 11:-1 12:-1 13:-1 
-0.7096866984757415 1:0.583333 2:-1 3:1 4:-0.773585 5:-0.557078 6:-1 7:-1 8:0.0839695 9:-1 10:-0.903226 11:-1 12:0.333333 13:-1 
-1 1:-0.333333 2:1 3:1 4:-0.811321 5:-0.625571 6:-1 7:1 8:0.175573 9:1 10:-0.0322581 12:-1 13:-1 
-1 1:0.166667 2:1 3:1 4:-0.698113 5:-0.657534 6:-1 7:-1 8:-0.160305 9:1 10:-0.516129 12:-1 13:0.5 
-1 1:-0.458333 2:1 3:-1 4:0.0188679 5:-0.461187 6:-1 7:1 8:0.633588 9:-1 10:-0.741935 11:-1 12:0.333333 13:-1 
-1 1:0.25 2:1 3:-1 4:0.584906 5:-0.342466 6:-1 7:1 8:0.129771 9:-1 10:0.354839 11:1 12:-1 13:1 
-1 1:0.541667 2:1 3:1 4:-0.509434 5:-0.196347 6:-1 7:1 8:0.221374 9:-1 10:-0.870968 12:-1 13:-1 
-1 1:0.458333 2:-1 3:0.333333 4:-0.132075 5:-0.146119 6:-1 7:-1 8:-0.0534351 9:-1 10:-0.935484 11:-1 12:-1 13:1 
-1 1:-0.0833333 2:1 3:0.333333 4:-0.886792 5:-0.561644 6:-1 7:-1 8:0.0992366 9:1 10:-0.612903 12:-1 13:-1 
-1 1:0.541667 2:-1 3:-1 4:0.0566038 5:-0.543379 6:-1 7:-1 8:-0.343511 9:-1 10:-0.16129 11:1 12:-1 13:-1 
-1 1:0.0416667 2:1 3:0.333333 4:-0.415094 5:-0.328767 6:-1 7:1 8:0.236641 9:-1 10:-0.83871 11:1 12:-0.333333 13:-1 
-1 1:-0.0416667 2:1 3:-0.333333 4:-0.245283 5:-0.657534 6:-1 7:-1 8:0.328244 9:-1 10:-0.741935 11:-1 12:-0.333333 13:-1 
-1 1:0.0416667 2:1 3:0.333333 4:0.0566038 5:-0.515982 6:-1 7:1 8:0.435115 9:-1 10:-0.483871 11:-1 12:-1 13:1 
-1 1:0.166667 2:1 3:1 4:-0.283019 5:-0.630137 6:-1 7:-1 8:0.480916 9:1 10:-1 11:-1 12:-1 13:1 
-1 1:0.25 2:1 3:1 4:-0.169811 5:-0.3379 6:-1 7:1 8:0.694656 9:-1 10:-1 11:-1 12:-1 13:-1 
-1 1:-0.0833333 2:1 3:-1 4:-0.415094 5:-0.60274 6:-1 7:1 8:-0.175573 9:1 10:-0.548387 11:-1 12:-0.333333 13:-1 
-1 1:0.458333 2:-1 3:1 4:-0.320755 5:-0.191781 6:-1 7:-1 8:-0.221374 9:-1 10:-0.354839 12:0.333333 13:-1 
-1 1:0.125 2:1 3:-1 4:-0.509434 5:-0.694064 6:-1 7:1 8:0.389313 9:-1 10:-0.387097 12:-1 13:1 
-1 1:-0.416667 2:1 3:1 4:-0.698113 5:-0.611872 6:-1 7:-1 8:0.374046 9:-1 10:-1 11:-1 12:-1 13:1 
-1 1:0.458333 2:-1 3:1 4:0.622642 5:-0.0913242 6:-1 7:-1 8:0.267176 9:1 10:-1 11:-1 12:-1 13:-1 
-1 1:-0.333333 2:-1 3:1 4:-0.169811 5:-0.497717 6:-1 7:1 8:0.236641 9:1 10:-0.935484 12:-1 13:-1 
-1 1:0.666667 2:1 3:-1 4:0.245283 5:-0.506849 6:1 7:1 8:-0.0839695 9:-1 10:-0.967742 12:-0.333333 13:-1 
-1 1:-0.458333 2:1 3:0.333333 4:-0.509434 5:-0.479452 6:1 7:-1 8:0.877863 9:-1 10:-0.741935 11:1 12:-1 13:1 
-1 2:1 3:0.333333 4:-0.320755 5:-0.452055 6:1 7:1 8:0.557252 9:-1 10:-1 11:-1 12:1 13:-1 
-1 1:-0.416667 2:1 3:0.333333 4:-0.320755 5:-0.136986 6:-1 7:-1 8:0.389313 9:-1 10:-0.387097 11:-1 12:-0.333333 13:-1 
-1 1:-0.0416667 2:1 3:1 4:-0.735849 5:-0.511416 6:1 7:-1 8:0.160305 9:-1 10:-0.967742 11:-1 12:1 13:1 
-1 1:0.0416667 2:1 3:1 4:-0.132075 5:-0.484018 6:-1 7:-1 8:0.358779 9:-1 10:-0.612903 11:-1 12:-1 13:-1 
-1 1:0.625 2:1 3:0.333333 4:-0.54717 5:-0.310502 6:-1 7:-1 8:0.221374 9:-1 10:-0.677419 11:-1 12:-0.333333 13:1 
-1 1:0.208333 2:1 3:0.333333 4:-0.792453 5:-0.479452 6:-1 7:1 8:0.267176 9:1 10:-0.806452 12:-1 13:1 
-1 1:-0.666667 2:1 3:0.333333 4:-0.320755 5:-0.43379 6:-1 7:-1 8:0.770992 9:-1 10:0.129032 11:1 12:-1 13:-1 
-1 1:-0.0833333 2:1 3:0.333333 4:-1 5:-0.538813 6:-1 7:-1 8:0.267176 9:1 10:-1 11:-1 12:-0.333333 13:1 
-1 1:0.0416667 2:1 3:0.333333 4:-0.509434 5:-0.39726 6:-1 7:1 8:0.160305 9:-1 10:-0.870968 12:-1 13:1 
-1 1:-0.5 2:1 3:-0.333333 4:-0.226415 5:-0.648402 6:-1 7:-1 8:-0.0687023 9:-1 10:-1 12:-1 13:0.5 
-1 1:-0.333333 2:1 3:1 4:-0.603774 5:-0.388128 6:-1 7:1 8:0.740458 9:-1 10:-1 11:-1 12:-1 13:-1 
-1 1:0.375 2:1 3:0.333333 4:-0.320755 5:-0.520548 6:-1 7:-1 8:0.145038 9:-1 10:-0.419355 12:1 13:1 
-1 1:-0.25 2:1 3:0.333333 4:-0.169811 5:-0.401826 6:-1 7:1 8:0.29771 9:-1 10:-1 11:-1 12:-1 13:-1 
-1 1:-0.0833333 2:-1 3:0.333333 4:-0.132075 5:-0.16895 6:-1 7:1 8:0.0839695 9:-1 10:-0.516129 11:-1 12:-0.333333 13:-1 
-1 1:0.333333 2:1 3:0.333333 4:0.0566038 5:-0.465753 6:1 7:-1 8:0.00763359 9:1 10:-0.677419 12:-1 13:-1 
-1 1:-0.375 2:1 3:-0.333333 4:-0.509434 5:-0.374429 6:-1 7:-1 8:0.557252 9:-1 10:-1 11:-1 12:-1 13:1 
-1 1:0.166667 2:1 3:1 4:-0.132075 5:-0.69863 6:-1 7:-1 8:0.175573 9:-1 10:-0.870968 12:-1 13:0.5 
-1 1:0.583333 2:-1 3:0.333333 4:-0.603774 5:1 6:-1 7:1 8:0.358779 9:-1 10:-0.483871 12:-1 13:1 
-1 1:0.458333 2:1 3:1 4:-0.358491 5:-0.374429 6:-1 7:-1 8:-0.480916 9:1 10:-0.935484 12:-0.333333 13:1 
-0.3164516180507216 1:0.875 2:-1 3:-0.333333 4:-0.509434 5:-0.347032 6:-1 7:1 8:-0.236641 9:1 10:-0.935484 11:-1 12:-0.333333 13:-1 
-1 1:0.5 2:1 3:1 4:-0.509434 5:-0.767123 6:-1 7:-1 8:0.0534351 9:-1 10:-0.870968 11:-1 12:-1 13:1 
-1 1:0.25 2:1 3:1 4:-0.226415 5:-0.506849 6:-1 7:-1 8:0.374046 9:-1 10:-0.83871 12:-1 13:1 
-1 2:1 3:1 4:-0.0943396 5:-0.543379 6:-1 7:1 8:-0.389313 9:1 10:-1 11:-1 12:-1 13:1 
-1 1:0.166667 2:-1 3:1 4:-0.358491 5:-0.191781 6:-1 7:1 8:0.343511 9:-1 10:-1 11:-1 12:-0.333333 13:-1 
-0.3255728399164964 1:0.75 2:-1 3:1 4:-0.660377 5:-0.894977 6:-1 7:-1 8:-0.175573 9:-1 10:-0.483871 12:-1 13:-1 
-0.6647574883157411 1:-0.541667 2:1 3:-1 4:-0.132075 5:-0.666667 6:-1 7:-1 8:0.633588 9:1 10:-0.548387 11:-1 12:-1 13:1 
-0.132687603986579 1:-0.416667 2:1 3:1 4:-0.603774 5:-0.191781 6:-1 7:-1 8:0.679389 9:-1 10:-0.612903 12:-1 13:-1 
-1 1:-0.291667 2:-1 3:1 4:-0.169811 5:-0.465753 6:-1 7:1 8:0.236641 9:1 10:-1 12:-1 13:-1 
-0.9812629647786997 1:0.75 2:-1 3:0.333333 4:-0.698113 5:-0.365297 6:1 7:1 8:-0.0992366 9:-1 10:-1 11:-1 12:-0.333333 13:-1 
-1 1:0.541667 2:1 3:1 4:0.245283 5:-0.534247 6:-1 7:1 8:0.0229008 9:-1 10:-0.258065 11:-1 12:-1 13:0.5 
-0.007806066714825718 1:0.5 2:-1 3:0.333333 4:-0.132075 5:0.328767 6:1 7:1 8:0.312977 9:-1 10:-0.741935 11:-1 12:-0.333333 13:-1 
-0.8588713941426523 1:0.166667 2:1 3:0.333333 4:0.0566038 5:-1 6:1 7:-1 8:0.557252 9:-1 10:-0.935484 11:-1 12:-0.333333 13:1 
-0.4986543995153957 1:0.416667 2:1 3:-1 4:-0.0377358 5:-0.511416 6:1 7:1 8:0.206107 9:-1 10:-0.258065 11:1 12:-1 13:0.5 
-0.7346589773633722 1:-0.0833333 2:1 3:1 4:-0.132075 5:-0.383562 6:-1 7:1 8:0.755725 9:1 10:-1 11:-1 12:-1 13:-1 
-0.7012226897056861 1:0.166667 2:-1 3:1 4:-0.509434 5:0.0410959 6:-1 7:-1 8:0.40458 9:1 10:-0.806452 11:-1 12:-1 13:-1 
-0.1787336862771643 1:0.958333 2:-1 3:0.333333 4:-0.132075 5:-0.675799 6:-1 8:-0.312977 9:-1 10:-0.645161 12:-1 13:-1 
-1 1:0.583333 2:-1 3:1 4:-0.773585 5:-0.557078 6:-1 7:-1 8:0.0839695 9:-1 10:-0.903226 11:-1 12:0.333333 13:-1 
-1 1:-0.333333 2:1 3:1 4:-0.811321 5:-0.625571 6:-1 7:1 8:0.175573 9:1 10:-0.0322581 12:-1 13:-1 
-1 1:0.166667 2:1 3:1 4:-0.698113 5:-0.657534 6:-1 7:-1 8:-0.160305 9:1 10:-0.516129 12:-1 13:0.5 
-1 1:-0.458333 2:1 3:-1 4:0.0188679 5:-0.461187 6:-1 7:1 8:0.633588 9:-1 10:-0.741935 11:-1 12:0.333333 13:-1 
-1 1:0.25 2:1 3:-1 4:0.584906 5:-0.342466 6:-1 7:1 8:0.129771 9:-1 10:0.354839 11:1 12:-1 13:1 
-1 1:0.541667 2:1 3:1 4:-0.509434 5:-0.196347 6:-1 7:1 8:0.221374 9:-1 10:-0.870968 12:-1 13:-1 
-0.974915280444566 1:0.458333 2:-1 3:0.333333 4:-0.132075 5:-0.146119 6:-1 7:-1 8:-0.0534351 9:-1 10:-0.935484 11:-1 12:-1 13:1 
-1 1:-0.0833333 2:1 3:0.333333 4:-0.886792 5:-0.561644 6:-1 7:-1 8:0.0992366 9:1 10:-0.612903 12:-1 13:-1 
-1 1:0.541667 2:-1 3:-1 4:0.0566038 5:-0.543379 6:-1 7:-1 8:-0.343511 9:-1 10:-0.16129 11:1 12:-1 13:-1 
-1 1:0.0416667 2:1 3:0.333333 4:-0.415094 5:-0.328767 6:-1 7:1 8:0.236641 9:-1 10:-0.83871 11:1 12:-0.333333 13:-1 
-0.1657860448115452 1:-0.0416667 2:1 3:-0.333333 4:-0.245283 5:-0.657534 6:-1 7:-1 8:0.328244 9:-1 10:-0.741935 11:-1 12:-0.333333 13:-1 
-1 1:0.0416667 2:1 3:0.333333 4:0.0566038 5:-0.515982 6:-1 7:1 8:0.435115 9:-1 10:-0.483871 11:-1 12:-1 13:1 
-1 1:0.166667 2:1 3:1 4:-0.283019 5:-0.630137 6:-1 7:-1 8:0.480916 9:1 10:-1 11:-1 12:-1 13:1 
-1 1:0.25 2:1 3:1 4:-0.169811 5:-0.3379 6:-1 7:1 8:0.694656 9:-1 10:-1 11:-1 12:-1 13:-1 
-0.4365522941548913 1:-0.0833333 2:1 3:-1 4:-0.415094 5:-0.60274 6:-1 7:1 8:-0.175573 9:1 10:-0.548387 11:-1 12:-0.333333 13:-1 
-1 1:0.458333 2:-1 3:1 4:-0.320755 5:-0.191781 6:-1 7:-1 8:-0.221374 9:-1 10:-0.354839 12:0.333333 13:-1 
-1 1:0.125 2:1 3:-1 4:-0.509434 5:-0.694064 6:-1 7:1 8:0.389313 9:-1 10:-0.387097 12:-1 13:1 
-1 1:-0.416667 2:1 3:1 4:-0.698113 5:-0.611872 6:-1 7:-1 8:0.374046 9:-1 10:-1 11:-1 12:-1 13:1 
-1 1:0.458333 2:-1 3:1 4:0.622642 5:-0.0913242 6:-1 7:-1 8:0.267176 9:1 10:-1 11:-1 12:-1 13:-1 
-1 1:-0.333333 2:-1 3:1 4:-0.169811 5:-0.497717 6:-1 7:1 8:0.236641 9:1 10:-0.935484 12:-1 13:-1 
-1 1:0.666667 2:1 3:-1 4:0.245283 5:-0.506849 6:1 7:1 8:-0.0839695 9:-1 10:-0.967742 12:-0.333333 13:-1 
-0.8806560922144128 1:-0.458333 2:1 3:0.333333 4:-0.509434 5:-0.479452 6:1 7:-1 8:0.877863 9:-1 10:-0.741935 11:1 12:-1 13:1 
-1 2:1 3:0.333333 4:-0.320755 5:-0.452055 6:1 7:1 8:0.557252 9:-1 10:-1 11:-1 12:1 13:-1 
-1 1:-0.416667 2:1 3:0.333333 4:-0.320755 5:-0.136986 6:-1 7:-1 8:0.389313 9:-1 10:-0.387097 11:-1 12:-0.333333 13:-1 
-1 1:-0.0416667 2:1 3:1 4:-0.735849 5:-0.511416 6:1 7:-1 8:0.160305 9:-1 10:-0.967742 11:-1 12:1 13:1 
-0.9984416138462016 1:0.0416667 2:1 3:1 4:-0.132075 5:-0.484018 6:-1 7:-1 8:0.358779 9:-1 10:-0.612903 11:-1 12:-1 13:-1 
-0.7183034467667421 1:0.208333 2:-1 3:1 4:-0.886792 5:-0.442922 6:-1 7:1 8:-0.221374 9:-1 10:-0.677419 12:-1 13:-1 
-1 1:0.625 2:1 3:0.333333 4:-0.54717 5:-0.310502 6:-1 7:-1 8:0.221374 9:-1 10:-0.677419 11:-1 12:-0.333333 13:1 
-1 1:0.208333 2:1 3:0.333333 4:-0.792453 5:-0.479452 6:-1 7:1 8:0.267176 9:1 10:-0.806452 12:-1 13:1 
-0.9669556969111788 1:-0.666667 2:1 3:0.333333 4:-0.320755 5:-0.43379 6:-1 7:-1 8:0.770992 9:-1 10:0.129032 11:1 12:-1 13:-1 
-0.3528626042431882 1:-0.0833333 2:1 3:0.333333 4:-0.415094 5:-0.456621 6:1 7:1 8:0.450382 9:-1 10:-0.225806 12:-1 13:-1 
-1 1:-0.0833333 2:1 3:0.333333 4:-1 5:-0.538813 6:-1 7:-1 8:0.267176 9:1 10:-1 11:-1 12:-0.333333 13:1 
-1 1:0.0416667 2:1 3:0.333333 4:-0.509434 5:-0.39726 6:-1 7:1 8:0.160305 9:-1 10:-0.870968 12:-1 13:1 
-1 1:-0.5 2:1 3:-0.333333 4:-0.226415 5:-0.648402 6:-1 7:-1 8:-0.0687023 9:-1 10:-1 12:-1 13:0.5 
-1 1:-0.333333 2:1 3:1 4:-0.603774 5:-0.388128 6:-1 7:1 8:0.740458 9:-1 10:-1 11:-1 12:-1 13:-1 
-1 1:0.375 2:1 3:0.333333 4:-0.320755 5:-0.520548 6:-1 7:-1 8:0.145038 9:-1 10:-0.419355 12:1 13:1 
-1 1:-0.25 2:1 3:0.333333 4:-0.169811 5:-0.401826 6:-1 7:1 8:0.29771 9:-1 10:-1 11:-1 12:-1 13:-1 
-0.6384315461283631 1:-0.0833333 2:-1 3:0.333333 4:-0.132075 5:-0.16895 6:-1 7:1 8:0.0839695 9:-1 10:-0.516129 11:-1 12:-0.333333 13:-1 
-0.2251430864354751 1:-0.0833333 2:1 3:0.333333 4:-0.698113 5:-0.776256 6:-1 7:-1 8:-0.206107 9:-1 10:-0.806452 11:-1 12:-1 13:-1 
-1 1:0.333333 2:1 3:0.333333 4:0.0566038 5:-0.465753 6:1 7:-1 8:0.00763359 9:1 10:-0.677419 12:-1 13:-1 
-1 1:-0.375 2:1 3:-0.333333 4:-0.509434 5:-0.374429 6:-1 7:-1 8:0.557252 9:-1 10:-1 11:-1 12:-1 13:1 
-1 1:0.166667 2:1 3:1 4:-0.132075 5:-0.69863 6:-1 7:-1 8:0.175573 9:-1 10:-0.870968 12:-1 13:0.5 
